4 100
1 0.291978 0.265500 -0.170450 -0.042864 0.081374 -0.454664 -0.328739 0.359858 0.083970 0.019078 0.037135 -0.143710 -0.282565 -0.169349 -0.398606 -0.097884 -0.194517 0.032536 0.057172 -0.123044 0.101626 0.201468 -0.034453 0.154083 -0.019624 0.015861 -0.213757 0.107801 -0.113746 -0.009833 -0.351367 0.451019 0.152527 -0.009254 -0.305176 -0.342750 -0.240982 0.192510 -0.354589 -0.373267 0.024811 0.410166 0.389213 -0.327423 -0.218868 -0.093385 0.106201 -0.087989 0.144723 0.357253 0.455357 0.084458 0.276999 0.098253 -0.220725 -0.197444 -0.136872 0.048011 -0.098170 -0.065060 0.132559 0.146895 -0.021974 -0.139274 0.193574 0.369406 -0.052533 0.047854 0.092610 0.168753 0.367332 -0.188180 0.177360 -0.000479 0.289297 -0.058111 -0.038638 0.278652 -0.069368 0.151628 0.244991 -0.091790 -0.033827 0.297282 -0.050201 -0.372192 -0.152524 0.002508 0.150976 0.315028 0.081359 -0.187607 0.414077 -0.085833 -0.154009 -0.291568 -0.179043 -0.352033 0.139881 0.023944 
2 -0.015162 -0.159850 0.001841 -0.004219 0.179729 -0.284042 -0.141076 -0.125688 -0.131281 0.350432 0.205691 -0.142235 0.264386 0.077507 -0.437033 0.316889 -0.012792 0.128971 0.322708 0.145049 -0.220086 -0.076274 0.123723 0.295745 0.222966 -0.207832 0.228727 -0.138396 -0.221415 -0.059663 -0.349773 0.414474 -0.059844 -0.184635 0.149505 0.256347 -0.245445 0.381365 -0.344339 -0.297107 0.195991 -0.128478 -0.242294 0.234660 -0.131332 0.016773 -0.268261 0.338118 0.130441 0.384893 0.274094 0.020009 -0.248205 -0.177447 -0.240067 0.066263 0.001125 0.073546 0.232039 0.053994 0.017068 -0.199831 0.136065 -0.261424 -0.084554 0.214608 -0.309391 -0.281265 0.086653 -0.115042 -0.283458 -0.092368 0.187896 0.195102 -0.154756 0.277816 0.050295 0.056414 -0.164229 -0.230254 0.220585 -0.292416 0.302814 0.297319 0.103427 -0.389509 -0.186148 0.315991 0.224059 0.160911 -0.039032 -0.170395 -0.030184 -0.381817 -0.318151 -0.106321 -0.062215 -0.161077 -0.232700 0.207828 
3 0.238437 -0.144441 -0.022392 0.370891 -0.276372 -0.335742 -0.325558 0.007258 0.102934 -0.137622 -0.062063 0.236710 0.039536 0.324537 -0.084910 0.358333 -0.108463 0.038827 0.386188 0.125920 -0.067515 -0.225575 0.386581 -0.018544 0.172028 0.351575 0.132548 0.225024 -0.280565 -0.277781 -0.044580 0.201064 -0.171504 -0.303594 -0.269641 -0.352369 0.216621 0.154913 -0.023773 -0.068188 -0.349925 0.318581 0.291558 0.091608 0.322648 0.064787 0.002766 0.092912 -0.366913 0.351497 0.368248 -0.272815 0.106509 0.150842 -0.378108 0.010406 0.177428 0.373751 -0.034513 0.277879 -0.010198 0.085042 0.155376 0.062159 0.194570 0.154688 -0.227276 -0.345111 0.147354 -0.147062 0.251525 0.364549 -0.290277 0.382986 0.233968 0.361846 -0.273860 -0.018172 -0.280028 0.066893 -0.238628 -0.327244 0.363803 0.031455 0.098132 -0.367856 -0.159753 0.098384 0.014088 0.036942 0.269869 0.168546 0.334080 0.195552 0.267623 0.383789 0.290713 -0.186396 -0.387717 0.178068 
4 0.002984 0.002682 0.001289 0.004162 0.001070 0.003042 -0.003912 0.003391 0.000243 0.002714 0.003915 0.004190 -0.004139 -0.001511 -0.004369 0.003509 0.002602 -0.004607 0.002210 -0.001460 0.003801 0.003934 0.000886 0.004240 0.004110 0.004201 -0.000680 -0.001925 -0.002238 0.004068 0.002605 -0.001168 -0.002677 0.002321 0.002451 0.000216 0.002327 0.002597 -0.004218 0.003197 -0.003422 -0.003745 -0.004277 -0.003196 0.003197 -0.000474 0.002573 0.003776 0.002478 0.003310 0.004836 0.003300 -0.002520 -0.001831 0.001331 0.004715 -0.003867 -0.000491 -0.004968 -0.002661 -0.001950 -0.004591 0.001376 0.001272 -0.002978 -0.002427 0.003774 -0.001384 -0.002112 -0.003102 -0.001685 0.004189 0.001858 0.004163 0.000480 0.003740 -0.002261 0.003489 0.001842 -0.000076 -0.002780 -0.001396 0.001221 -0.001650 -0.002411 0.001472 -0.004089 -0.002345 -0.003427 -0.002922 -0.001056 0.001387 -0.003639 0.002744 0.002210 0.002079 -0.004061 0.001571 -0.004466 -0.000574 
